SNNS network definition file V1.4-3D
generated at Tue Jul 31 14:38:38 2007

network name : rede_16
source files :
no. of units : 32
no. of connections : 320
no. of unit types : 0
no. of site types : 0


learning function : Std_Backpropagation
update function   : Topological_Order


unit default section :

act      | bias     | st | subnet | layer | act func     | out func
---------|----------|----|--------|-------|--------------|-------------
 0.00000 |  0.00000 | h  |      0 |     1 | Act_Logistic | Out_Identity 
---------|----------|----|--------|-------|--------------|-------------


unit definition section :

no. | typeName | unitName | act      | bias     | st | position | act func             | out func | sites
----|----------|----------|----------|----------|----|----------|----------------------|----------|-------
  1 |          | noName   |  0.00000 |  0.00000 | i  |  1, 5, 1 |||
  2 |          | noName   |  0.00000 |  0.00000 | i  |  1, 6, 1 |||
  3 |          | noName   |  0.00000 |  0.00000 | i  |  1, 7, 1 |||
  4 |          | noName   |  0.00000 |  0.00000 | i  |  1, 8, 1 |||
  5 |          | noName   |  0.00000 |  0.00000 | i  |  1, 9, 1 |||
  6 |          | noName   |  0.00000 |  0.00000 | i  |  1,10, 1 |||
  7 |          | noName   |  0.00000 |  0.00000 | i  |  1,11, 1 |||
  8 |          | noName   |  0.00000 |  0.00000 | i  |  1,12, 1 |||
  9 |          | noName   |  0.00000 |  0.00000 | h  |  3, 1, 1 |||
 10 |          | noName   |  0.00000 |  0.00000 | h  |  3, 2, 1 |||
 11 |          | noName   |  0.00000 |  0.00000 | h  |  3, 3, 1 |||
 12 |          | noName   |  0.00000 |  0.00000 | h  |  3, 4, 1 |||
 13 |          | noName   |  0.00000 |  0.00000 | h  |  3, 5, 1 |||
 14 |          | noName   |  0.00000 |  0.00000 | h  |  3, 6, 1 |||
 15 |          | noName   |  0.00000 |  0.00000 | h  |  3, 7, 1 |||
 16 |          | noName   |  0.00000 |  0.00000 | h  |  3, 8, 1 |||
 17 |          | noName   |  0.00000 |  0.00000 | h  |  3, 9, 1 |||
 18 |          | noName   |  0.00000 |  0.00000 | h  |  3,10, 1 |||
 19 |          | noName   |  0.00000 |  0.00000 | h  |  3,11, 1 |||
 20 |          | noName   |  0.00000 |  0.00000 | h  |  3,12, 1 |||
 21 |          | noName   |  0.00000 |  0.00000 | h  |  3,13, 1 |||
 22 |          | noName   |  0.00000 |  0.00000 | h  |  3,14, 1 |||
 23 |          | noName   |  0.00000 |  0.00000 | h  |  3,15, 1 |||
 24 |          | noName   |  0.00000 |  0.00000 | h  |  3,16, 1 |||
 25 |          | noName   |  0.00000 |  0.00000 | o  |  5, 5, 1 | Act_IdentityPlusBias |          | 
 26 |          | noName   |  0.00000 |  0.00000 | o  |  5, 6, 1 | Act_IdentityPlusBias |          | 
 27 |          | noName   |  0.00000 |  0.00000 | o  |  5, 7, 1 | Act_IdentityPlusBias |          | 
 28 |          | noName   |  0.00000 |  0.00000 | o  |  5, 8, 1 | Act_IdentityPlusBias |          | 
 29 |          | noName   |  0.00000 |  0.00000 | o  |  5, 9, 1 | Act_IdentityPlusBias |          | 
 30 |          | noName   |  0.00000 |  0.00000 | o  |  5,10, 1 | Act_IdentityPlusBias |          | 
 31 |          | noName   |  0.00000 |  0.00000 | o  |  5,11, 1 | Act_IdentityPlusBias |          | 
 32 |          | noName   |  0.00000 |  0.00000 | o  |  5,12, 1 | Act_IdentityPlusBias |          | 
----|----------|----------|----------|----------|----|----------|----------------------|----------|-------


connection definition section :

target | site | source:weight
-------|------|---------------------------------------------------------------------------------------------------------------------
     9 |      |  8: 0.00000,  7: 0.00000,  6: 0.00000,  5: 0.00000,  4: 0.00000,  3: 0.00000,  2: 0.00000,  1: 0.00000
    10 |      |  8: 0.00000,  7: 0.00000,  6: 0.00000,  5: 0.00000,  4: 0.00000,  3: 0.00000,  2: 0.00000,  1: 0.00000
    11 |      |  8: 0.00000,  7: 0.00000,  6: 0.00000,  5: 0.00000,  4: 0.00000,  3: 0.00000,  2: 0.00000,  1: 0.00000
    12 |      |  8: 0.00000,  7: 0.00000,  6: 0.00000,  5: 0.00000,  4: 0.00000,  3: 0.00000,  2: 0.00000,  1: 0.00000
    13 |      |  8: 0.00000,  7: 0.00000,  6: 0.00000,  5: 0.00000,  4: 0.00000,  3: 0.00000,  2: 0.00000,  1: 0.00000
    14 |      |  8: 0.00000,  7: 0.00000,  6: 0.00000,  5: 0.00000,  4: 0.00000,  3: 0.00000,  2: 0.00000,  1: 0.00000
    15 |      |  8: 0.00000,  7: 0.00000,  6: 0.00000,  5: 0.00000,  4: 0.00000,  3: 0.00000,  2: 0.00000,  1: 0.00000
    16 |      |  8: 0.00000,  7: 0.00000,  6: 0.00000,  5: 0.00000,  4: 0.00000,  3: 0.00000,  2: 0.00000,  1: 0.00000
    17 |      |  8: 0.00000,  7: 0.00000,  6: 0.00000,  5: 0.00000,  4: 0.00000,  3: 0.00000,  2: 0.00000,  1: 0.00000
    18 |      |  8: 0.00000,  7: 0.00000,  6: 0.00000,  5: 0.00000,  4: 0.00000,  3: 0.00000,  2: 0.00000,  1: 0.00000
    19 |      |  8: 0.00000,  7: 0.00000,  6: 0.00000,  5: 0.00000,  4: 0.00000,  3: 0.00000,  2: 0.00000,  1: 0.00000
    20 |      |  8: 0.00000,  7: 0.00000,  6: 0.00000,  5: 0.00000,  4: 0.00000,  3: 0.00000,  2: 0.00000,  1: 0.00000
    21 |      |  8: 0.00000,  7: 0.00000,  6: 0.00000,  5: 0.00000,  4: 0.00000,  3: 0.00000,  2: 0.00000,  1: 0.00000
    22 |      |  8: 0.00000,  7: 0.00000,  6: 0.00000,  5: 0.00000,  4: 0.00000,  3: 0.00000,  2: 0.00000,  1: 0.00000
    23 |      |  8: 0.00000,  7: 0.00000,  6: 0.00000,  5: 0.00000,  4: 0.00000,  3: 0.00000,  2: 0.00000,  1: 0.00000
    24 |      |  8: 0.00000,  7: 0.00000,  6: 0.00000,  5: 0.00000,  4: 0.00000,  3: 0.00000,  2: 0.00000,  1: 0.00000
    25 |      | 24: 0.00000, 23: 0.00000, 22: 0.00000, 21: 0.00000, 20: 0.00000, 19: 0.00000, 18: 0.00000, 17: 0.00000, 16: 0.00000,
                15: 0.00000, 14: 0.00000, 13: 0.00000, 12: 0.00000, 11: 0.00000, 10: 0.00000,  9: 0.00000,  8: 0.00000,  7: 0.00000,
                 6: 0.00000,  5: 0.00000,  4: 0.00000,  3: 0.00000,  2: 0.00000,  1: 0.00000
    26 |      | 24: 0.00000, 23: 0.00000, 22: 0.00000, 21: 0.00000, 20: 0.00000, 19: 0.00000, 18: 0.00000, 17: 0.00000, 16: 0.00000,
                15: 0.00000, 14: 0.00000, 13: 0.00000, 12: 0.00000, 11: 0.00000, 10: 0.00000,  9: 0.00000,  8: 0.00000,  7: 0.00000,
                 6: 0.00000,  5: 0.00000,  4: 0.00000,  3: 0.00000,  2: 0.00000,  1: 0.00000
    27 |      | 24: 0.00000, 23: 0.00000, 22: 0.00000, 21: 0.00000, 20: 0.00000, 19: 0.00000, 18: 0.00000, 17: 0.00000, 16: 0.00000,
                15: 0.00000, 14: 0.00000, 13: 0.00000, 12: 0.00000, 11: 0.00000, 10: 0.00000,  9: 0.00000,  8: 0.00000,  7: 0.00000,
                 6: 0.00000,  5: 0.00000,  4: 0.00000,  3: 0.00000,  2: 0.00000,  1: 0.00000
    28 |      | 24: 0.00000, 23: 0.00000, 22: 0.00000, 21: 0.00000, 20: 0.00000, 19: 0.00000, 18: 0.00000, 17: 0.00000, 16: 0.00000,
                15: 0.00000, 14: 0.00000, 13: 0.00000, 12: 0.00000, 11: 0.00000, 10: 0.00000,  9: 0.00000,  8: 0.00000,  7: 0.00000,
                 6: 0.00000,  5: 0.00000,  4: 0.00000,  3: 0.00000,  2: 0.00000,  1: 0.00000
    29 |      | 24: 0.00000, 23: 0.00000, 22: 0.00000, 21: 0.00000, 20: 0.00000, 19: 0.00000, 18: 0.00000, 17: 0.00000, 16: 0.00000,
                15: 0.00000, 14: 0.00000, 13: 0.00000, 12: 0.00000, 11: 0.00000, 10: 0.00000,  9: 0.00000,  8: 0.00000,  7: 0.00000,
                 6: 0.00000,  5: 0.00000,  4: 0.00000,  3: 0.00000,  2: 0.00000,  1: 0.00000
    30 |      | 24: 0.00000, 23: 0.00000, 22: 0.00000, 21: 0.00000, 20: 0.00000, 19: 0.00000, 18: 0.00000, 17: 0.00000, 16: 0.00000,
                15: 0.00000, 14: 0.00000, 13: 0.00000, 12: 0.00000, 11: 0.00000, 10: 0.00000,  9: 0.00000,  8: 0.00000,  7: 0.00000,
                 6: 0.00000,  5: 0.00000,  4: 0.00000,  3: 0.00000,  2: 0.00000,  1: 0.00000
    31 |      | 24: 0.00000, 23: 0.00000, 22: 0.00000, 21: 0.00000, 20: 0.00000, 19: 0.00000, 18: 0.00000, 17: 0.00000, 16: 0.00000,
                15: 0.00000, 14: 0.00000, 13: 0.00000, 12: 0.00000, 11: 0.00000, 10: 0.00000,  9: 0.00000,  8: 0.00000,  7: 0.00000,
                 6: 0.00000,  5: 0.00000,  4: 0.00000,  3: 0.00000,  2: 0.00000,  1: 0.00000
    32 |      | 24: 0.00000, 23: 0.00000, 22: 0.00000, 21: 0.00000, 20: 0.00000, 19: 0.00000, 18: 0.00000, 17: 0.00000, 16: 0.00000,
                15: 0.00000, 14: 0.00000, 13: 0.00000, 12: 0.00000, 11: 0.00000, 10: 0.00000,  9: 0.00000,  8: 0.00000,  7: 0.00000,
                 6: 0.00000,  5: 0.00000,  4: 0.00000,  3: 0.00000,  2: 0.00000,  1: 0.00000
-------|------|---------------------------------------------------------------------------------------------------------------------


layer definition section :

layer | unitNo.
------|----------------------------------------------------------------------------------------------------------------------------
    2 |  9, 10, 11, 12, 13, 14, 15, 16, 17, 18, 19, 20, 21, 22, 23, 24
    3 | 25, 26, 27, 28, 29, 30, 31, 32
------|----------------------------------------------------------------------------------------------------------------------------
