SNNS network definition file V1.4-3D
generated at Mon Nov 12 14:36:36 2007

network name : rede_9_8_1
source files :
no. of units : 18
no. of connections : 89
no. of unit types : 0
no. of site types : 0


learning function : Std_Backpropagation
update function   : Topological_Order


unit default section :

act      | bias     | st | subnet | layer | act func     | out func
---------|----------|----|--------|-------|--------------|-------------
 0.00000 |  0.00000 | h  |      0 |     1 | Act_Logistic | Out_Identity 
---------|----------|----|--------|-------|--------------|-------------


unit definition section :

no. | typeName | unitName | act      | bias     | st | position | act func             | out func | sites
----|----------|----------|----------|----------|----|----------|----------------------|----------|-------
  1 |          | noName   |  0.00000 |  0.00000 | i  | 1,1,1    |||
  2 |          | noName   |  0.00000 |  0.00000 | i  | 1,2,1    |||
  3 |          | noName   |  0.00000 |  0.00000 | i  | 1,3,1    |||
  4 |          | noName   |  0.00000 |  0.00000 | i  | 1,4,1    |||
  5 |          | noName   |  0.00000 |  0.00000 | i  | 1,5,1    |||
  6 |          | noName   |  0.00000 |  0.00000 | i  | 1,6,1    |||
  7 |          | noName   |  0.00000 |  0.00000 | i  | 1,7,1    |||
  8 |          | noName   |  0.00000 |  0.00000 | i  | 1,8,1    |||
  9 |          | noName   |  0.00000 |  0.00000 | i  | 1,9,1    |||
 10 |          | noName   |  0.00000 |  0.00000 | h  | 2,1,1    |||
 11 |          | noName   |  0.00000 |  0.00000 | h  | 2,2,1    |||
 12 |          | noName   |  0.00000 |  0.00000 | h  | 2,3,1    |||
 13 |          | noName   |  0.00000 |  0.00000 | h  | 2,4,1    |||
 14 |          | noName   |  0.00000 |  0.00000 | h  | 2,5,1    |||
 15 |          | noName   |  0.00000 |  0.00000 | h  | 2,6,1    |||
 16 |          | noName   |  0.00000 |  0.00000 | h  | 2,7,1    |||
 17 |          | noName   |  0.00000 |  0.00000 | h  | 2,8,1    |||
 18 |          | noName   |  0.00000 |  0.00000 | o  | 3,1,1    | Act_IdentityPlusBias |          | 
----|----------|----------|----------|----------|----|----------|----------------------|----------|-------


connection definition section :

target | site | source:weight
-------|------|---------------------------------------------------------------------------------------------------------------------
    10 |      |  9: 0.00000,  8: 0.00000,  7: 0.00000,  6: 0.00000,  5: 0.00000,  4: 0.00000,  3: 0.00000,  2: 0.00000,  1: 0.00000
    11 |      |  9: 0.00000,  8: 0.00000,  7: 0.00000,  6: 0.00000,  5: 0.00000,  4: 0.00000,  3: 0.00000,  2: 0.00000,  1: 0.00000
    12 |      |  9: 0.00000,  8: 0.00000,  7: 0.00000,  6: 0.00000,  5: 0.00000,  4: 0.00000,  3: 0.00000,  2: 0.00000,  1: 0.00000
    13 |      |  9: 0.00000,  8: 0.00000,  7: 0.00000,  6: 0.00000,  5: 0.00000,  4: 0.00000,  3: 0.00000,  2: 0.00000,  1: 0.00000
    14 |      |  9: 0.00000,  8: 0.00000,  7: 0.00000,  6: 0.00000,  5: 0.00000,  4: 0.00000,  3: 0.00000,  2: 0.00000,  1: 0.00000
    15 |      |  9: 0.00000,  8: 0.00000,  7: 0.00000,  6: 0.00000,  5: 0.00000,  4: 0.00000,  3: 0.00000,  2: 0.00000,  1: 0.00000
    16 |      |  9: 0.00000,  8: 0.00000,  7: 0.00000,  6: 0.00000,  5: 0.00000,  4: 0.00000,  3: 0.00000,  2: 0.00000,  1: 0.00000
    17 |      |  9: 0.00000,  8: 0.00000,  7: 0.00000,  6: 0.00000,  5: 0.00000,  4: 0.00000,  3: 0.00000,  2: 0.00000,  1: 0.00000
    18 |      | 17: 0.00000, 16: 0.00000, 15: 0.00000, 14: 0.00000, 13: 0.00000, 12: 0.00000, 11: 0.00000, 10: 0.00000,  9: 0.00000,
                 8: 0.00000,  7: 0.00000,  6: 0.00000,  5: 0.00000,  4: 0.00000,  3: 0.00000,  2: 0.00000,  1: 0.00000
-------|------|---------------------------------------------------------------------------------------------------------------------


layer definition section :

layer | unitNo.
------|----------------------------------------------------------------------------------------------------------------------------
    2 | 10, 11, 12, 13, 14, 15, 16, 17
    3 | 18
------|----------------------------------------------------------------------------------------------------------------------------
