SNNS network definition file V1.4-3D
generated at Thu Dec 13 22:01:47 2007

network name : rede_16_4_16_TRUE
source files :
no. of units : 36
no. of connections : 384
no. of unit types : 0
no. of site types : 0


learning function : Std_Backpropagation
update function   : Topological_Order


unit default section :

act      | bias     | st | subnet | layer | act func     | out func
---------|----------|----|--------|-------|--------------|-------------
 0.00000 |  0.00000 | h  |      0 |     1 | Act_Logistic | Out_Identity 
---------|----------|----|--------|-------|--------------|-------------


unit definition section :

no. | typeName | unitName | act      | bias     | st | position | act func             | out func | sites
----|----------|----------|----------|----------|----|----------|----------------------|----------|-------
  1 |          | noName   |  0.00000 |  0.00000 | i  |  1, 1, 1 |||
  2 |          | noName   |  0.00000 |  0.00000 | i  |  1, 2, 1 |||
  3 |          | noName   |  0.00000 |  0.00000 | i  |  1, 3, 1 |||
  4 |          | noName   |  0.00000 |  0.00000 | i  |  1, 4, 1 |||
  5 |          | noName   |  0.00000 |  0.00000 | i  |  1, 5, 1 |||
  6 |          | noName   |  0.00000 |  0.00000 | i  |  1, 6, 1 |||
  7 |          | noName   |  0.00000 |  0.00000 | i  |  1, 7, 1 |||
  8 |          | noName   |  0.00000 |  0.00000 | i  |  1, 8, 1 |||
  9 |          | noName   |  0.00000 |  0.00000 | i  |  1, 9, 1 |||
 10 |          | noName   |  0.00000 |  0.00000 | i  |  1,10, 1 |||
 11 |          | noName   |  0.00000 |  0.00000 | i  |  1,11, 1 |||
 12 |          | noName   |  0.00000 |  0.00000 | i  |  1,12, 1 |||
 13 |          | noName   |  0.00000 |  0.00000 | i  |  1,13, 1 |||
 14 |          | noName   |  0.00000 |  0.00000 | i  |  1,14, 1 |||
 15 |          | noName   |  0.00000 |  0.00000 | i  |  1,15, 1 |||
 16 |          | noName   |  0.00000 |  0.00000 | i  |  1,16, 1 |||
 17 |          | noName   |  0.00000 |  0.00000 | h  |  2, 5, 1 |||
 18 |          | noName   |  0.00000 |  0.00000 | h  |  2, 6, 1 |||
 19 |          | noName   |  0.00000 |  0.00000 | h  |  2, 7, 1 |||
 20 |          | noName   |  0.00000 |  0.00000 | h  |  2, 8, 1 |||
 21 |          | noName   |  0.00000 |  0.00000 | o  |  3, 1, 1 | Act_IdentityPlusBias |          | 
 22 |          | noName   |  0.00000 |  0.00000 | o  |  3, 2, 1 | Act_IdentityPlusBias |          | 
 23 |          | noName   |  0.00000 |  0.00000 | o  |  3, 3, 1 | Act_IdentityPlusBias |          | 
 24 |          | noName   |  0.00000 |  0.00000 | o  |  3, 4, 1 | Act_IdentityPlusBias |          | 
 25 |          | noName   |  0.00000 |  0.00000 | o  |  3, 5, 1 | Act_IdentityPlusBias |          | 
 26 |          | noName   |  0.00000 |  0.00000 | o  |  3, 6, 1 | Act_IdentityPlusBias |          | 
 27 |          | noName   |  0.00000 |  0.00000 | o  |  3, 7, 1 | Act_IdentityPlusBias |          | 
 28 |          | noName   |  0.00000 |  0.00000 | o  |  3, 8, 1 | Act_IdentityPlusBias |          | 
 29 |          | noName   |  0.00000 |  0.00000 | o  |  3, 9, 1 | Act_IdentityPlusBias |          | 
 30 |          | noName   |  0.00000 |  0.00000 | o  |  3,10, 1 | Act_IdentityPlusBias |          | 
 31 |          | noName   |  0.00000 |  0.00000 | o  |  3,11, 1 | Act_IdentityPlusBias |          | 
 32 |          | noName   |  0.00000 |  0.00000 | o  |  3,12, 1 | Act_IdentityPlusBias |          | 
 33 |          | noName   |  0.00000 |  0.00000 | o  |  3,13, 1 | Act_IdentityPlusBias |          | 
 34 |          | noName   |  0.00000 |  0.00000 | o  |  3,14, 1 | Act_IdentityPlusBias |          | 
 35 |          | noName   |  0.00000 |  0.00000 | o  |  3,15, 1 | Act_IdentityPlusBias |          | 
 36 |          | noName   |  0.00000 |  0.00000 | o  |  3,16, 1 | Act_IdentityPlusBias |          | 
----|----------|----------|----------|----------|----|----------|----------------------|----------|-------


connection definition section :

target | site | source:weight
-------|------|---------------------------------------------------------------------------------------------------------------------
    17 |      | 16: 0.00000, 15: 0.00000, 14: 0.00000, 13: 0.00000, 12: 0.00000, 11: 0.00000, 10: 0.00000,  9: 0.00000,  8: 0.00000,
                 7: 0.00000,  6: 0.00000,  5: 0.00000,  4: 0.00000,  3: 0.00000,  2: 0.00000,  1: 0.00000
    18 |      | 16: 0.00000, 15: 0.00000, 14: 0.00000, 13: 0.00000, 12: 0.00000, 11: 0.00000, 10: 0.00000,  9: 0.00000,  8: 0.00000,
                 7: 0.00000,  6: 0.00000,  5: 0.00000,  4: 0.00000,  3: 0.00000,  2: 0.00000,  1: 0.00000
    19 |      | 16: 0.00000, 15: 0.00000, 14: 0.00000, 13: 0.00000, 12: 0.00000, 11: 0.00000, 10: 0.00000,  9: 0.00000,  8: 0.00000,
                 7: 0.00000,  6: 0.00000,  5: 0.00000,  4: 0.00000,  3: 0.00000,  2: 0.00000,  1: 0.00000
    20 |      | 16: 0.00000, 15: 0.00000, 14: 0.00000, 13: 0.00000, 12: 0.00000, 11: 0.00000, 10: 0.00000,  9: 0.00000,  8: 0.00000,
                 7: 0.00000,  6: 0.00000,  5: 0.00000,  4: 0.00000,  3: 0.00000,  2: 0.00000,  1: 0.00000
    21 |      | 20: 0.00000, 19: 0.00000, 18: 0.00000, 17: 0.00000, 16: 0.00000, 15: 0.00000, 14: 0.00000, 13: 0.00000, 12: 0.00000,
                11: 0.00000, 10: 0.00000,  9: 0.00000,  8: 0.00000,  7: 0.00000,  6: 0.00000,  5: 0.00000,  4: 0.00000,  3: 0.00000,
                 2: 0.00000,  1: 0.00000
    22 |      | 20: 0.00000, 19: 0.00000, 18: 0.00000, 17: 0.00000, 16: 0.00000, 15: 0.00000, 14: 0.00000, 13: 0.00000, 12: 0.00000,
                11: 0.00000, 10: 0.00000,  9: 0.00000,  8: 0.00000,  7: 0.00000,  6: 0.00000,  5: 0.00000,  4: 0.00000,  3: 0.00000,
                 2: 0.00000,  1: 0.00000
    23 |      | 20: 0.00000, 19: 0.00000, 18: 0.00000, 17: 0.00000, 16: 0.00000, 15: 0.00000, 14: 0.00000, 13: 0.00000, 12: 0.00000,
                11: 0.00000, 10: 0.00000,  9: 0.00000,  8: 0.00000,  7: 0.00000,  6: 0.00000,  5: 0.00000,  4: 0.00000,  3: 0.00000,
                 2: 0.00000,  1: 0.00000
    24 |      | 20: 0.00000, 19: 0.00000, 18: 0.00000, 17: 0.00000, 16: 0.00000, 15: 0.00000, 14: 0.00000, 13: 0.00000, 12: 0.00000,
                11: 0.00000, 10: 0.00000,  9: 0.00000,  8: 0.00000,  7: 0.00000,  6: 0.00000,  5: 0.00000,  4: 0.00000,  3: 0.00000,
                 2: 0.00000,  1: 0.00000
    25 |      | 20: 0.00000, 19: 0.00000, 18: 0.00000, 17: 0.00000, 16: 0.00000, 15: 0.00000, 14: 0.00000, 13: 0.00000, 12: 0.00000,
                11: 0.00000, 10: 0.00000,  9: 0.00000,  8: 0.00000,  7: 0.00000,  6: 0.00000,  5: 0.00000,  4: 0.00000,  3: 0.00000,
                 2: 0.00000,  1: 0.00000
    26 |      | 20: 0.00000, 19: 0.00000, 18: 0.00000, 17: 0.00000, 16: 0.00000, 15: 0.00000, 14: 0.00000, 13: 0.00000, 12: 0.00000,
                11: 0.00000, 10: 0.00000,  9: 0.00000,  8: 0.00000,  7: 0.00000,  6: 0.00000,  5: 0.00000,  4: 0.00000,  3: 0.00000,
                 2: 0.00000,  1: 0.00000
    27 |      | 20: 0.00000, 19: 0.00000, 18: 0.00000, 17: 0.00000, 16: 0.00000, 15: 0.00000, 14: 0.00000, 13: 0.00000, 12: 0.00000,
                11: 0.00000, 10: 0.00000,  9: 0.00000,  8: 0.00000,  7: 0.00000,  6: 0.00000,  5: 0.00000,  4: 0.00000,  3: 0.00000,
                 2: 0.00000,  1: 0.00000
    28 |      | 20: 0.00000, 19: 0.00000, 18: 0.00000, 17: 0.00000, 16: 0.00000, 15: 0.00000, 14: 0.00000, 13: 0.00000, 12: 0.00000,
                11: 0.00000, 10: 0.00000,  9: 0.00000,  8: 0.00000,  7: 0.00000,  6: 0.00000,  5: 0.00000,  4: 0.00000,  3: 0.00000,
                 2: 0.00000,  1: 0.00000
    29 |      | 20: 0.00000, 19: 0.00000, 18: 0.00000, 17: 0.00000, 16: 0.00000, 15: 0.00000, 14: 0.00000, 13: 0.00000, 12: 0.00000,
                11: 0.00000, 10: 0.00000,  9: 0.00000,  8: 0.00000,  7: 0.00000,  6: 0.00000,  5: 0.00000,  4: 0.00000,  3: 0.00000,
                 2: 0.00000,  1: 0.00000
    30 |      | 20: 0.00000, 19: 0.00000, 18: 0.00000, 17: 0.00000, 16: 0.00000, 15: 0.00000, 14: 0.00000, 13: 0.00000, 12: 0.00000,
                11: 0.00000, 10: 0.00000,  9: 0.00000,  8: 0.00000,  7: 0.00000,  6: 0.00000,  5: 0.00000,  4: 0.00000,  3: 0.00000,
                 2: 0.00000,  1: 0.00000
    31 |      | 20: 0.00000, 19: 0.00000, 18: 0.00000, 17: 0.00000, 16: 0.00000, 15: 0.00000, 14: 0.00000, 13: 0.00000, 12: 0.00000,
                11: 0.00000, 10: 0.00000,  9: 0.00000,  8: 0.00000,  7: 0.00000,  6: 0.00000,  5: 0.00000,  4: 0.00000,  3: 0.00000,
                 2: 0.00000,  1: 0.00000
    32 |      | 20: 0.00000, 19: 0.00000, 18: 0.00000, 17: 0.00000, 16: 0.00000, 15: 0.00000, 14: 0.00000, 13: 0.00000, 12: 0.00000,
                11: 0.00000, 10: 0.00000,  9: 0.00000,  8: 0.00000,  7: 0.00000,  6: 0.00000,  5: 0.00000,  4: 0.00000,  3: 0.00000,
                 2: 0.00000,  1: 0.00000
    33 |      | 20: 0.00000, 19: 0.00000, 18: 0.00000, 17: 0.00000, 16: 0.00000, 15: 0.00000, 14: 0.00000, 13: 0.00000, 12: 0.00000,
                11: 0.00000, 10: 0.00000,  9: 0.00000,  8: 0.00000,  7: 0.00000,  6: 0.00000,  5: 0.00000,  4: 0.00000,  3: 0.00000,
                 2: 0.00000,  1: 0.00000
    34 |      | 20: 0.00000, 19: 0.00000, 18: 0.00000, 17: 0.00000, 16: 0.00000, 15: 0.00000, 14: 0.00000, 13: 0.00000, 12: 0.00000,
                11: 0.00000, 10: 0.00000,  9: 0.00000,  8: 0.00000,  7: 0.00000,  6: 0.00000,  5: 0.00000,  4: 0.00000,  3: 0.00000,
                 2: 0.00000,  1: 0.00000
    35 |      | 20: 0.00000, 19: 0.00000, 18: 0.00000, 17: 0.00000, 16: 0.00000, 15: 0.00000, 14: 0.00000, 13: 0.00000, 12: 0.00000,
                11: 0.00000, 10: 0.00000,  9: 0.00000,  8: 0.00000,  7: 0.00000,  6: 0.00000,  5: 0.00000,  4: 0.00000,  3: 0.00000,
                 2: 0.00000,  1: 0.00000
    36 |      | 20: 0.00000, 19: 0.00000, 18: 0.00000, 17: 0.00000, 16: 0.00000, 15: 0.00000, 14: 0.00000, 13: 0.00000, 12: 0.00000,
                11: 0.00000, 10: 0.00000,  9: 0.00000,  8: 0.00000,  7: 0.00000,  6: 0.00000,  5: 0.00000,  4: 0.00000,  3: 0.00000,
                 2: 0.00000,  1: 0.00000
-------|------|---------------------------------------------------------------------------------------------------------------------


layer definition section :

layer | unitNo.
------|----------------------------------------------------------------------------------------------------------------------------
    2 | 17, 18, 19, 20
    3 | 21, 22, 23, 24, 25, 26, 27, 28, 29, 30, 31, 32, 33, 34, 35, 36
------|----------------------------------------------------------------------------------------------------------------------------
