SNNS network definition file V1.4-3D
generated at Tue Jul 31 14:20:09 2007

network name : rede_1
source files :
no. of units : 17
no. of connections : 80
no. of unit types : 0
no. of site types : 0


learning function : Std_Backpropagation
update function   : Topological_Order


unit default section :

act      | bias     | st | subnet | layer | act func     | out func
---------|----------|----|--------|-------|--------------|-------------
 0.00000 |  0.00000 | h  |      0 |     1 | Act_Logistic | Out_Identity 
---------|----------|----|--------|-------|--------------|-------------


unit definition section :

no. | typeName | unitName | act      | bias     | st | position | act func             | out func | sites
----|----------|----------|----------|----------|----|----------|----------------------|----------|-------
  1 |          | noName   |  0.00000 |  0.00000 | i  | 1,1,1    |||
  2 |          | noName   |  0.00000 |  0.00000 | i  | 1,2,1    |||
  3 |          | noName   |  0.00000 |  0.00000 | i  | 1,3,1    |||
  4 |          | noName   |  0.00000 |  0.00000 | i  | 1,4,1    |||
  5 |          | noName   |  0.00000 |  0.00000 | i  | 1,5,1    |||
  6 |          | noName   |  0.00000 |  0.00000 | i  | 1,6,1    |||
  7 |          | noName   |  0.00000 |  0.00000 | i  | 1,7,1    |||
  8 |          | noName   |  0.00000 |  0.00000 | i  | 1,8,1    |||
  9 |          | noName   |  0.00000 |  0.00000 | h  | 3,4,1    |||
 10 |          | noName   |  0.00000 |  0.00000 | o  | 5,1,1    | Act_IdentityPlusBias |          | 
 11 |          | noName   |  0.00000 |  0.00000 | o  | 5,2,1    | Act_IdentityPlusBias |          | 
 12 |          | noName   |  0.00000 |  0.00000 | o  | 5,3,1    | Act_IdentityPlusBias |          | 
 13 |          | noName   |  0.00000 |  0.00000 | o  | 5,4,1    | Act_IdentityPlusBias |          | 
 14 |          | noName   |  0.00000 |  0.00000 | o  | 5,5,1    | Act_IdentityPlusBias |          | 
 15 |          | noName   |  0.00000 |  0.00000 | o  | 5,6,1    | Act_IdentityPlusBias |          | 
 16 |          | noName   |  0.00000 |  0.00000 | o  | 5,7,1    | Act_IdentityPlusBias |          | 
 17 |          | noName   |  0.00000 |  0.00000 | o  | 5,8,1    | Act_IdentityPlusBias |          | 
----|----------|----------|----------|----------|----|----------|----------------------|----------|-------


connection definition section :

target | site | source:weight
-------|------|---------------------------------------------------------------------------------------------------------------------
     9 |      |  8: 0.00000,  7: 0.00000,  6: 0.00000,  5: 0.00000,  4: 0.00000,  3: 0.00000,  2: 0.00000,  1: 0.00000
    10 |      |  9: 0.00000,  8: 0.00000,  7: 0.00000,  6: 0.00000,  5: 0.00000,  4: 0.00000,  3: 0.00000,  2: 0.00000,  1: 0.00000
    11 |      |  9: 0.00000,  8: 0.00000,  7: 0.00000,  6: 0.00000,  5: 0.00000,  4: 0.00000,  3: 0.00000,  2: 0.00000,  1: 0.00000
    12 |      |  9: 0.00000,  8: 0.00000,  7: 0.00000,  6: 0.00000,  5: 0.00000,  4: 0.00000,  3: 0.00000,  2: 0.00000,  1: 0.00000
    13 |      |  9: 0.00000,  8: 0.00000,  7: 0.00000,  6: 0.00000,  5: 0.00000,  4: 0.00000,  3: 0.00000,  2: 0.00000,  1: 0.00000
    14 |      |  9: 0.00000,  8: 0.00000,  7: 0.00000,  6: 0.00000,  5: 0.00000,  4: 0.00000,  3: 0.00000,  2: 0.00000,  1: 0.00000
    15 |      |  9: 0.00000,  8: 0.00000,  7: 0.00000,  6: 0.00000,  5: 0.00000,  4: 0.00000,  3: 0.00000,  2: 0.00000,  1: 0.00000
    16 |      |  9: 0.00000,  8: 0.00000,  7: 0.00000,  6: 0.00000,  5: 0.00000,  4: 0.00000,  3: 0.00000,  2: 0.00000,  1: 0.00000
    17 |      |  9: 0.00000,  8: 0.00000,  7: 0.00000,  6: 0.00000,  5: 0.00000,  4: 0.00000,  3: 0.00000,  2: 0.00000,  1: 0.00000
-------|------|---------------------------------------------------------------------------------------------------------------------


layer definition section :

layer | unitNo.
------|----------------------------------------------------------------------------------------------------------------------------
    2 |  9
    3 | 10, 11, 12, 13, 14, 15, 16, 17
------|----------------------------------------------------------------------------------------------------------------------------
