SNNS network definition file V1.4-3D
generated at Fri Sep 21 15:05:10 2007

network name : rede_1_8_9
source files :
no. of units : 18
no. of connections : 89
no. of unit types : 0
no. of site types : 0


learning function : Std_Backpropagation
update function   : Topological_Order


unit default section :

act      | bias     | st | subnet | layer | act func     | out func
---------|----------|----|--------|-------|--------------|-------------
 0.00000 |  0.00000 | h  |      0 |     1 | Act_Logistic | Out_Identity 
---------|----------|----|--------|-------|--------------|-------------


unit definition section :

no. | typeName | unitName | act      | bias     | st | position | act func             | out func | sites
----|----------|----------|----------|----------|----|----------|----------------------|----------|-------
  1 |          | noName   |  0.00000 |  0.00000 | i  | 0,1,1    |||
  2 |          | noName   |  0.00000 |  0.00000 | h  | 2,1,1    |||
  3 |          | noName   |  0.00000 |  0.00000 | h  | 2,2,1    |||
  4 |          | noName   |  0.00000 |  0.00000 | h  | 2,3,1    |||
  5 |          | noName   |  0.00000 |  0.00000 | h  | 2,4,1    |||
  6 |          | noName   |  0.00000 |  0.00000 | h  | 2,5,1    |||
  7 |          | noName   |  0.00000 |  0.00000 | h  | 2,6,1    |||
  8 |          | noName   |  0.00000 |  0.00000 | h  | 2,7,1    |||
  9 |          | noName   |  0.00000 |  0.00000 | h  | 2,8,1    |||
 10 |          | noName   |  0.00000 |  0.00000 | o  | 9,1,1    | Act_IdentityPlusBias |          | 
 11 |          | noName   |  0.00000 |  0.00000 | o  | 9,2,1    | Act_IdentityPlusBias |          | 
 12 |          | noName   |  0.00000 |  0.00000 | o  | 9,3,1    | Act_IdentityPlusBias |          | 
 13 |          | noName   |  0.00000 |  0.00000 | o  | 9,4,1    | Act_IdentityPlusBias |          | 
 14 |          | noName   |  0.00000 |  0.00000 | o  | 9,5,1    | Act_IdentityPlusBias |          | 
 15 |          | noName   |  0.00000 |  0.00000 | o  | 9,6,1    | Act_IdentityPlusBias |          | 
 16 |          | noName   |  0.00000 |  0.00000 | o  | 9,7,1    | Act_IdentityPlusBias |          | 
 17 |          | noName   |  0.00000 |  0.00000 | o  | 9,8,1    | Act_IdentityPlusBias |          | 
 18 |          | noName   |  0.00000 |  0.00000 | o  | 9,9,1    | Act_IdentityPlusBias |          | 
----|----------|----------|----------|----------|----|----------|----------------------|----------|-------


connection definition section :

target | site | source:weight
-------|------|---------------------------------------------------------------------------------------------------------------------
     2 |      |  1: 0.00000
     3 |      |  1: 0.00000
     4 |      |  1: 0.00000
     5 |      |  1: 0.00000
     6 |      |  1: 0.00000
     7 |      |  1: 0.00000
     8 |      |  1: 0.00000
     9 |      |  1: 0.00000
    10 |      |  9: 0.00000,  8: 0.00000,  7: 0.00000,  6: 0.00000,  5: 0.00000,  4: 0.00000,  3: 0.00000,  2: 0.00000,  1: 0.00000
    11 |      |  9: 0.00000,  8: 0.00000,  7: 0.00000,  6: 0.00000,  5: 0.00000,  4: 0.00000,  3: 0.00000,  2: 0.00000,  1: 0.00000
    12 |      |  9: 0.00000,  8: 0.00000,  7: 0.00000,  6: 0.00000,  5: 0.00000,  4: 0.00000,  3: 0.00000,  2: 0.00000,  1: 0.00000
    13 |      |  9: 0.00000,  8: 0.00000,  7: 0.00000,  6: 0.00000,  5: 0.00000,  4: 0.00000,  3: 0.00000,  2: 0.00000,  1: 0.00000
    14 |      |  9: 0.00000,  8: 0.00000,  7: 0.00000,  6: 0.00000,  5: 0.00000,  4: 0.00000,  3: 0.00000,  2: 0.00000,  1: 0.00000
    15 |      |  9: 0.00000,  8: 0.00000,  7: 0.00000,  6: 0.00000,  5: 0.00000,  4: 0.00000,  3: 0.00000,  2: 0.00000,  1: 0.00000
    16 |      |  9: 0.00000,  8: 0.00000,  7: 0.00000,  6: 0.00000,  5: 0.00000,  4: 0.00000,  3: 0.00000,  2: 0.00000,  1: 0.00000
    17 |      |  9: 0.00000,  8: 0.00000,  7: 0.00000,  6: 0.00000,  5: 0.00000,  4: 0.00000,  3: 0.00000,  2: 0.00000,  1: 0.00000
    18 |      |  9: 0.00000,  8: 0.00000,  7: 0.00000,  6: 0.00000,  5: 0.00000,  4: 0.00000,  3: 0.00000,  2: 0.00000,  1: 0.00000
-------|------|---------------------------------------------------------------------------------------------------------------------


layer definition section :

layer | unitNo.
------|----------------------------------------------------------------------------------------------------------------------------
    2 |  2,  3,  4,  5,  6,  7,  8,  9
    3 | 10, 11, 12, 13, 14, 15, 16, 17, 18
------|----------------------------------------------------------------------------------------------------------------------------
