SNNS network definition file V1.4-3D
generated at Wed Oct 24 15:06:09 2007

network name : rede_4_4_10
source files :
no. of units : 18
no. of connections : 96
no. of unit types : 0
no. of site types : 0


learning function : Std_Backpropagation
update function   : Topological_Order


unit default section :

act      | bias     | st | subnet | layer | act func     | out func
---------|----------|----|--------|-------|--------------|-------------
 0.00000 |  0.00000 | h  |      0 |     1 | Act_Logistic | Out_Identity 
---------|----------|----|--------|-------|--------------|-------------


unit definition section :

no. | typeName | unitName | act      | bias     | st | position | act func             | out func | sites
----|----------|----------|----------|----------|----|----------|----------------------|----------|-------
  1 |          | noName   |  0.00000 |  0.00000 | i  |  1, 3, 1 |||
  2 |          | noName   |  0.00000 |  0.00000 | i  |  1, 4, 1 |||
  3 |          | noName   |  0.00000 |  0.00000 | i  |  1, 5, 1 |||
  4 |          | noName   |  0.00000 |  0.00000 | i  |  1, 6, 1 |||
  5 |          | noName   |  0.00000 |  0.00000 | h  |  4, 4, 1 |||
  6 |          | noName   |  0.00000 |  0.00000 | h  |  4, 5, 1 |||
  7 |          | noName   |  0.00000 |  0.00000 | h  |  4, 6, 1 |||
  8 |          | noName   |  0.00000 |  0.00000 | h  |  4, 7, 1 |||
  9 |          | noName   |  0.00000 |  0.00000 | o  |  7, 1, 1 | Act_IdentityPlusBias |          | 
 10 |          | noName   |  0.00000 |  0.00000 | o  |  7, 2, 1 | Act_IdentityPlusBias |          | 
 11 |          | noName   |  0.00000 |  0.00000 | o  |  7, 3, 1 | Act_IdentityPlusBias |          | 
 12 |          | noName   |  0.00000 |  0.00000 | o  |  7, 4, 1 | Act_IdentityPlusBias |          | 
 13 |          | noName   |  0.00000 |  0.00000 | o  |  7, 5, 1 | Act_IdentityPlusBias |          | 
 14 |          | noName   |  0.00000 |  0.00000 | o  |  7, 6, 1 | Act_IdentityPlusBias |          | 
 15 |          | noName   |  0.00000 |  0.00000 | o  |  7, 7, 1 | Act_IdentityPlusBias |          | 
 16 |          | noName   |  0.00000 |  0.00000 | o  |  7, 8, 1 | Act_IdentityPlusBias |          | 
 17 |          | noName   |  0.00000 |  0.00000 | o  |  7, 9, 1 | Act_IdentityPlusBias |          | 
 18 |          | noName   |  0.00000 |  0.00000 | o  |  7,10, 1 | Act_IdentityPlusBias |          | 
----|----------|----------|----------|----------|----|----------|----------------------|----------|-------


connection definition section :

target | site | source:weight
-------|------|---------------------------------------------------------------------------------------------------------------------
     5 |      |  4: 0.00000,  3: 0.00000,  2: 0.00000,  1: 0.00000
     6 |      |  4: 0.00000,  3: 0.00000,  2: 0.00000,  1: 0.00000
     7 |      |  4: 0.00000,  3: 0.00000,  2: 0.00000,  1: 0.00000
     8 |      |  4: 0.00000,  3: 0.00000,  2: 0.00000,  1: 0.00000
     9 |      |  8: 0.00000,  7: 0.00000,  6: 0.00000,  5: 0.00000,  4: 0.00000,  3: 0.00000,  2: 0.00000,  1: 0.00000
    10 |      |  8: 0.00000,  7: 0.00000,  6: 0.00000,  5: 0.00000,  4: 0.00000,  3: 0.00000,  2: 0.00000,  1: 0.00000
    11 |      |  8: 0.00000,  7: 0.00000,  6: 0.00000,  5: 0.00000,  4: 0.00000,  3: 0.00000,  2: 0.00000,  1: 0.00000
    12 |      |  8: 0.00000,  7: 0.00000,  6: 0.00000,  5: 0.00000,  4: 0.00000,  3: 0.00000,  2: 0.00000,  1: 0.00000
    13 |      |  8: 0.00000,  7: 0.00000,  6: 0.00000,  5: 0.00000,  4: 0.00000,  3: 0.00000,  2: 0.00000,  1: 0.00000
    14 |      |  8: 0.00000,  7: 0.00000,  6: 0.00000,  5: 0.00000,  4: 0.00000,  3: 0.00000,  2: 0.00000,  1: 0.00000
    15 |      |  8: 0.00000,  7: 0.00000,  6: 0.00000,  5: 0.00000,  4: 0.00000,  3: 0.00000,  2: 0.00000,  1: 0.00000
    16 |      |  8: 0.00000,  7: 0.00000,  6: 0.00000,  5: 0.00000,  4: 0.00000,  3: 0.00000,  2: 0.00000,  1: 0.00000
    17 |      |  8: 0.00000,  7: 0.00000,  6: 0.00000,  5: 0.00000,  4: 0.00000,  3: 0.00000,  2: 0.00000,  1: 0.00000
    18 |      |  8: 0.00000,  7: 0.00000,  6: 0.00000,  5: 0.00000,  4: 0.00000,  3: 0.00000,  2: 0.00000,  1: 0.00000
-------|------|---------------------------------------------------------------------------------------------------------------------


layer definition section :

layer | unitNo.
------|----------------------------------------------------------------------------------------------------------------------------
    2 |  5,  6,  7,  8
    3 |  9, 10, 11, 12, 13, 14, 15, 16, 17, 18
------|----------------------------------------------------------------------------------------------------------------------------
