SNNS network definition file V1.4-3D
generated at Thu Dec 13 22:01:15 2007

network name : rede_16_16_16_TRUE
source files :
no. of units : 48
no. of connections : 768
no. of unit types : 0
no. of site types : 0


learning function : Std_Backpropagation
update function   : Topological_Order


unit default section :

act      | bias     | st | subnet | layer | act func     | out func
---------|----------|----|--------|-------|--------------|-------------
 0.00000 |  0.00000 | h  |      0 |     1 | Act_Logistic | Out_Identity 
---------|----------|----|--------|-------|--------------|-------------


unit definition section :

no. | typeName | unitName | act      | bias     | st | position | act func             | out func | sites
----|----------|----------|----------|----------|----|----------|----------------------|----------|-------
  1 |          | noName   |  0.00000 |  0.00000 | i  |  1, 1, 1 |||
  2 |          | noName   |  0.00000 |  0.00000 | i  |  1, 2, 1 |||
  3 |          | noName   |  0.00000 |  0.00000 | i  |  1, 3, 1 |||
  4 |          | noName   |  0.00000 |  0.00000 | i  |  1, 4, 1 |||
  5 |          | noName   |  0.00000 |  0.00000 | i  |  1, 5, 1 |||
  6 |          | noName   |  0.00000 |  0.00000 | i  |  1, 6, 1 |||
  7 |          | noName   |  0.00000 |  0.00000 | i  |  1, 7, 1 |||
  8 |          | noName   |  0.00000 |  0.00000 | i  |  1, 8, 1 |||
  9 |          | noName   |  0.00000 |  0.00000 | i  |  1, 9, 1 |||
 10 |          | noName   |  0.00000 |  0.00000 | i  |  1,10, 1 |||
 11 |          | noName   |  0.00000 |  0.00000 | i  |  1,11, 1 |||
 12 |          | noName   |  0.00000 |  0.00000 | i  |  1,12, 1 |||
 13 |          | noName   |  0.00000 |  0.00000 | i  |  1,13, 1 |||
 14 |          | noName   |  0.00000 |  0.00000 | i  |  1,14, 1 |||
 15 |          | noName   |  0.00000 |  0.00000 | i  |  1,15, 1 |||
 16 |          | noName   |  0.00000 |  0.00000 | i  |  1,16, 1 |||
 17 |          | noName   |  0.00000 |  0.00000 | h  |  2, 1, 1 |||
 18 |          | noName   |  0.00000 |  0.00000 | h  |  2, 2, 1 |||
 19 |          | noName   |  0.00000 |  0.00000 | h  |  2, 3, 1 |||
 20 |          | noName   |  0.00000 |  0.00000 | h  |  2, 4, 1 |||
 21 |          | noName   |  0.00000 |  0.00000 | h  |  2, 5, 1 |||
 22 |          | noName   |  0.00000 |  0.00000 | h  |  2, 6, 1 |||
 23 |          | noName   |  0.00000 |  0.00000 | h  |  2, 7, 1 |||
 24 |          | noName   |  0.00000 |  0.00000 | h  |  2, 8, 1 |||
 25 |          | noName   |  0.00000 |  0.00000 | h  |  2, 9, 1 |||
 26 |          | noName   |  0.00000 |  0.00000 | h  |  2,10, 1 |||
 27 |          | noName   |  0.00000 |  0.00000 | h  |  2,11, 1 |||
 28 |          | noName   |  0.00000 |  0.00000 | h  |  2,12, 1 |||
 29 |          | noName   |  0.00000 |  0.00000 | h  |  2,13, 1 |||
 30 |          | noName   |  0.00000 |  0.00000 | h  |  2,14, 1 |||
 31 |          | noName   |  0.00000 |  0.00000 | h  |  2,15, 1 |||
 32 |          | noName   |  0.00000 |  0.00000 | h  |  2,16, 1 |||
 33 |          | noName   |  0.00000 |  0.00000 | o  |  3, 1, 1 | Act_IdentityPlusBias |          | 
 34 |          | noName   |  0.00000 |  0.00000 | o  |  3, 2, 1 | Act_IdentityPlusBias |          | 
 35 |          | noName   |  0.00000 |  0.00000 | o  |  3, 3, 1 | Act_IdentityPlusBias |          | 
 36 |          | noName   |  0.00000 |  0.00000 | o  |  3, 4, 1 | Act_IdentityPlusBias |          | 
 37 |          | noName   |  0.00000 |  0.00000 | o  |  3, 5, 1 | Act_IdentityPlusBias |          | 
 38 |          | noName   |  0.00000 |  0.00000 | o  |  3, 6, 1 | Act_IdentityPlusBias |          | 
 39 |          | noName   |  0.00000 |  0.00000 | o  |  3, 7, 1 | Act_IdentityPlusBias |          | 
 40 |          | noName   |  0.00000 |  0.00000 | o  |  3, 8, 1 | Act_IdentityPlusBias |          | 
 41 |          | noName   |  0.00000 |  0.00000 | o  |  3, 9, 1 | Act_IdentityPlusBias |          | 
 42 |          | noName   |  0.00000 |  0.00000 | o  |  3,10, 1 | Act_IdentityPlusBias |          | 
 43 |          | noName   |  0.00000 |  0.00000 | o  |  3,11, 1 | Act_IdentityPlusBias |          | 
 44 |          | noName   |  0.00000 |  0.00000 | o  |  3,12, 1 | Act_IdentityPlusBias |          | 
 45 |          | noName   |  0.00000 |  0.00000 | o  |  3,13, 1 | Act_IdentityPlusBias |          | 
 46 |          | noName   |  0.00000 |  0.00000 | o  |  3,14, 1 | Act_IdentityPlusBias |          | 
 47 |          | noName   |  0.00000 |  0.00000 | o  |  3,15, 1 | Act_IdentityPlusBias |          | 
 48 |          | noName   |  0.00000 |  0.00000 | o  |  3,16, 1 | Act_IdentityPlusBias |          | 
----|----------|----------|----------|----------|----|----------|----------------------|----------|-------


connection definition section :

target | site | source:weight
-------|------|---------------------------------------------------------------------------------------------------------------------
    17 |      | 16: 0.00000, 15: 0.00000, 14: 0.00000, 13: 0.00000, 12: 0.00000, 11: 0.00000, 10: 0.00000,  9: 0.00000,  8: 0.00000,
                 7: 0.00000,  6: 0.00000,  5: 0.00000,  4: 0.00000,  3: 0.00000,  2: 0.00000,  1: 0.00000
    18 |      | 16: 0.00000, 15: 0.00000, 14: 0.00000, 13: 0.00000, 12: 0.00000, 11: 0.00000, 10: 0.00000,  9: 0.00000,  8: 0.00000,
                 7: 0.00000,  6: 0.00000,  5: 0.00000,  4: 0.00000,  3: 0.00000,  2: 0.00000,  1: 0.00000
    19 |      | 16: 0.00000, 15: 0.00000, 14: 0.00000, 13: 0.00000, 12: 0.00000, 11: 0.00000, 10: 0.00000,  9: 0.00000,  8: 0.00000,
                 7: 0.00000,  6: 0.00000,  5: 0.00000,  4: 0.00000,  3: 0.00000,  2: 0.00000,  1: 0.00000
    20 |      | 16: 0.00000, 15: 0.00000, 14: 0.00000, 13: 0.00000, 12: 0.00000, 11: 0.00000, 10: 0.00000,  9: 0.00000,  8: 0.00000,
                 7: 0.00000,  6: 0.00000,  5: 0.00000,  4: 0.00000,  3: 0.00000,  2: 0.00000,  1: 0.00000
    21 |      | 16: 0.00000, 15: 0.00000, 14: 0.00000, 13: 0.00000, 12: 0.00000, 11: 0.00000, 10: 0.00000,  9: 0.00000,  8: 0.00000,
                 7: 0.00000,  6: 0.00000,  5: 0.00000,  4: 0.00000,  3: 0.00000,  2: 0.00000,  1: 0.00000
    22 |      | 16: 0.00000, 15: 0.00000, 14: 0.00000, 13: 0.00000, 12: 0.00000, 11: 0.00000, 10: 0.00000,  9: 0.00000,  8: 0.00000,
                 7: 0.00000,  6: 0.00000,  5: 0.00000,  4: 0.00000,  3: 0.00000,  2: 0.00000,  1: 0.00000
    23 |      | 16: 0.00000, 15: 0.00000, 14: 0.00000, 13: 0.00000, 12: 0.00000, 11: 0.00000, 10: 0.00000,  9: 0.00000,  8: 0.00000,
                 7: 0.00000,  6: 0.00000,  5: 0.00000,  4: 0.00000,  3: 0.00000,  2: 0.00000,  1: 0.00000
    24 |      | 16: 0.00000, 15: 0.00000, 14: 0.00000, 13: 0.00000, 12: 0.00000, 11: 0.00000, 10: 0.00000,  9: 0.00000,  8: 0.00000,
                 7: 0.00000,  6: 0.00000,  5: 0.00000,  4: 0.00000,  3: 0.00000,  2: 0.00000,  1: 0.00000
    25 |      | 16: 0.00000, 15: 0.00000, 14: 0.00000, 13: 0.00000, 12: 0.00000, 11: 0.00000, 10: 0.00000,  9: 0.00000,  8: 0.00000,
                 7: 0.00000,  6: 0.00000,  5: 0.00000,  4: 0.00000,  3: 0.00000,  2: 0.00000,  1: 0.00000
    26 |      | 16: 0.00000, 15: 0.00000, 14: 0.00000, 13: 0.00000, 12: 0.00000, 11: 0.00000, 10: 0.00000,  9: 0.00000,  8: 0.00000,
                 7: 0.00000,  6: 0.00000,  5: 0.00000,  4: 0.00000,  3: 0.00000,  2: 0.00000,  1: 0.00000
    27 |      | 16: 0.00000, 15: 0.00000, 14: 0.00000, 13: 0.00000, 12: 0.00000, 11: 0.00000, 10: 0.00000,  9: 0.00000,  8: 0.00000,
                 7: 0.00000,  6: 0.00000,  5: 0.00000,  4: 0.00000,  3: 0.00000,  2: 0.00000,  1: 0.00000
    28 |      | 16: 0.00000, 15: 0.00000, 14: 0.00000, 13: 0.00000, 12: 0.00000, 11: 0.00000, 10: 0.00000,  9: 0.00000,  8: 0.00000,
                 7: 0.00000,  6: 0.00000,  5: 0.00000,  4: 0.00000,  3: 0.00000,  2: 0.00000,  1: 0.00000
    29 |      | 16: 0.00000, 15: 0.00000, 14: 0.00000, 13: 0.00000, 12: 0.00000, 11: 0.00000, 10: 0.00000,  9: 0.00000,  8: 0.00000,
                 7: 0.00000,  6: 0.00000,  5: 0.00000,  4: 0.00000,  3: 0.00000,  2: 0.00000,  1: 0.00000
    30 |      | 16: 0.00000, 15: 0.00000, 14: 0.00000, 13: 0.00000, 12: 0.00000, 11: 0.00000, 10: 0.00000,  9: 0.00000,  8: 0.00000,
                 7: 0.00000,  6: 0.00000,  5: 0.00000,  4: 0.00000,  3: 0.00000,  2: 0.00000,  1: 0.00000
    31 |      | 16: 0.00000, 15: 0.00000, 14: 0.00000, 13: 0.00000, 12: 0.00000, 11: 0.00000, 10: 0.00000,  9: 0.00000,  8: 0.00000,
                 7: 0.00000,  6: 0.00000,  5: 0.00000,  4: 0.00000,  3: 0.00000,  2: 0.00000,  1: 0.00000
    32 |      | 16: 0.00000, 15: 0.00000, 14: 0.00000, 13: 0.00000, 12: 0.00000, 11: 0.00000, 10: 0.00000,  9: 0.00000,  8: 0.00000,
                 7: 0.00000,  6: 0.00000,  5: 0.00000,  4: 0.00000,  3: 0.00000,  2: 0.00000,  1: 0.00000
    33 |      | 32: 0.00000, 31: 0.00000, 30: 0.00000, 29: 0.00000, 28: 0.00000, 27: 0.00000, 26: 0.00000, 25: 0.00000, 24: 0.00000,
                23: 0.00000, 22: 0.00000, 21: 0.00000, 20: 0.00000, 19: 0.00000, 18: 0.00000, 17: 0.00000, 16: 0.00000, 15: 0.00000,
                14: 0.00000, 13: 0.00000, 12: 0.00000, 11: 0.00000, 10: 0.00000,  9: 0.00000,  8: 0.00000,  7: 0.00000,  6: 0.00000,
                 5: 0.00000,  4: 0.00000,  3: 0.00000,  2: 0.00000,  1: 0.00000
    34 |      | 32: 0.00000, 31: 0.00000, 30: 0.00000, 29: 0.00000, 28: 0.00000, 27: 0.00000, 26: 0.00000, 25: 0.00000, 24: 0.00000,
                23: 0.00000, 22: 0.00000, 21: 0.00000, 20: 0.00000, 19: 0.00000, 18: 0.00000, 17: 0.00000, 16: 0.00000, 15: 0.00000,
                14: 0.00000, 13: 0.00000, 12: 0.00000, 11: 0.00000, 10: 0.00000,  9: 0.00000,  8: 0.00000,  7: 0.00000,  6: 0.00000,
                 5: 0.00000,  4: 0.00000,  3: 0.00000,  2: 0.00000,  1: 0.00000
    35 |      | 32: 0.00000, 31: 0.00000, 30: 0.00000, 29: 0.00000, 28: 0.00000, 27: 0.00000, 26: 0.00000, 25: 0.00000, 24: 0.00000,
                23: 0.00000, 22: 0.00000, 21: 0.00000, 20: 0.00000, 19: 0.00000, 18: 0.00000, 17: 0.00000, 16: 0.00000, 15: 0.00000,
                14: 0.00000, 13: 0.00000, 12: 0.00000, 11: 0.00000, 10: 0.00000,  9: 0.00000,  8: 0.00000,  7: 0.00000,  6: 0.00000,
                 5: 0.00000,  4: 0.00000,  3: 0.00000,  2: 0.00000,  1: 0.00000
    36 |      | 32: 0.00000, 31: 0.00000, 30: 0.00000, 29: 0.00000, 28: 0.00000, 27: 0.00000, 26: 0.00000, 25: 0.00000, 24: 0.00000,
                23: 0.00000, 22: 0.00000, 21: 0.00000, 20: 0.00000, 19: 0.00000, 18: 0.00000, 17: 0.00000, 16: 0.00000, 15: 0.00000,
                14: 0.00000, 13: 0.00000, 12: 0.00000, 11: 0.00000, 10: 0.00000,  9: 0.00000,  8: 0.00000,  7: 0.00000,  6: 0.00000,
                 5: 0.00000,  4: 0.00000,  3: 0.00000,  2: 0.00000,  1: 0.00000
    37 |      | 32: 0.00000, 31: 0.00000, 30: 0.00000, 29: 0.00000, 28: 0.00000, 27: 0.00000, 26: 0.00000, 25: 0.00000, 24: 0.00000,
                23: 0.00000, 22: 0.00000, 21: 0.00000, 20: 0.00000, 19: 0.00000, 18: 0.00000, 17: 0.00000, 16: 0.00000, 15: 0.00000,
                14: 0.00000, 13: 0.00000, 12: 0.00000, 11: 0.00000, 10: 0.00000,  9: 0.00000,  8: 0.00000,  7: 0.00000,  6: 0.00000,
                 5: 0.00000,  4: 0.00000,  3: 0.00000,  2: 0.00000,  1: 0.00000
    38 |      | 32: 0.00000, 31: 0.00000, 30: 0.00000, 29: 0.00000, 28: 0.00000, 27: 0.00000, 26: 0.00000, 25: 0.00000, 24: 0.00000,
                23: 0.00000, 22: 0.00000, 21: 0.00000, 20: 0.00000, 19: 0.00000, 18: 0.00000, 17: 0.00000, 16: 0.00000, 15: 0.00000,
                14: 0.00000, 13: 0.00000, 12: 0.00000, 11: 0.00000, 10: 0.00000,  9: 0.00000,  8: 0.00000,  7: 0.00000,  6: 0.00000,
                 5: 0.00000,  4: 0.00000,  3: 0.00000,  2: 0.00000,  1: 0.00000
    39 |      | 32: 0.00000, 31: 0.00000, 30: 0.00000, 29: 0.00000, 28: 0.00000, 27: 0.00000, 26: 0.00000, 25: 0.00000, 24: 0.00000,
                23: 0.00000, 22: 0.00000, 21: 0.00000, 20: 0.00000, 19: 0.00000, 18: 0.00000, 17: 0.00000, 16: 0.00000, 15: 0.00000,
                14: 0.00000, 13: 0.00000, 12: 0.00000, 11: 0.00000, 10: 0.00000,  9: 0.00000,  8: 0.00000,  7: 0.00000,  6: 0.00000,
                 5: 0.00000,  4: 0.00000,  3: 0.00000,  2: 0.00000,  1: 0.00000
    40 |      | 32: 0.00000, 31: 0.00000, 30: 0.00000, 29: 0.00000, 28: 0.00000, 27: 0.00000, 26: 0.00000, 25: 0.00000, 24: 0.00000,
                23: 0.00000, 22: 0.00000, 21: 0.00000, 20: 0.00000, 19: 0.00000, 18: 0.00000, 17: 0.00000, 16: 0.00000, 15: 0.00000,
                14: 0.00000, 13: 0.00000, 12: 0.00000, 11: 0.00000, 10: 0.00000,  9: 0.00000,  8: 0.00000,  7: 0.00000,  6: 0.00000,
                 5: 0.00000,  4: 0.00000,  3: 0.00000,  2: 0.00000,  1: 0.00000
    41 |      | 32: 0.00000, 31: 0.00000, 30: 0.00000, 29: 0.00000, 28: 0.00000, 27: 0.00000, 26: 0.00000, 25: 0.00000, 24: 0.00000,
                23: 0.00000, 22: 0.00000, 21: 0.00000, 20: 0.00000, 19: 0.00000, 18: 0.00000, 17: 0.00000, 16: 0.00000, 15: 0.00000,
                14: 0.00000, 13: 0.00000, 12: 0.00000, 11: 0.00000, 10: 0.00000,  9: 0.00000,  8: 0.00000,  7: 0.00000,  6: 0.00000,
                 5: 0.00000,  4: 0.00000,  3: 0.00000,  2: 0.00000,  1: 0.00000
    42 |      | 32: 0.00000, 31: 0.00000, 30: 0.00000, 29: 0.00000, 28: 0.00000, 27: 0.00000, 26: 0.00000, 25: 0.00000, 24: 0.00000,
                23: 0.00000, 22: 0.00000, 21: 0.00000, 20: 0.00000, 19: 0.00000, 18: 0.00000, 17: 0.00000, 16: 0.00000, 15: 0.00000,
                14: 0.00000, 13: 0.00000, 12: 0.00000, 11: 0.00000, 10: 0.00000,  9: 0.00000,  8: 0.00000,  7: 0.00000,  6: 0.00000,
                 5: 0.00000,  4: 0.00000,  3: 0.00000,  2: 0.00000,  1: 0.00000
    43 |      | 32: 0.00000, 31: 0.00000, 30: 0.00000, 29: 0.00000, 28: 0.00000, 27: 0.00000, 26: 0.00000, 25: 0.00000, 24: 0.00000,
                23: 0.00000, 22: 0.00000, 21: 0.00000, 20: 0.00000, 19: 0.00000, 18: 0.00000, 17: 0.00000, 16: 0.00000, 15: 0.00000,
                14: 0.00000, 13: 0.00000, 12: 0.00000, 11: 0.00000, 10: 0.00000,  9: 0.00000,  8: 0.00000,  7: 0.00000,  6: 0.00000,
                 5: 0.00000,  4: 0.00000,  3: 0.00000,  2: 0.00000,  1: 0.00000
    44 |      | 32: 0.00000, 31: 0.00000, 30: 0.00000, 29: 0.00000, 28: 0.00000, 27: 0.00000, 26: 0.00000, 25: 0.00000, 24: 0.00000,
                23: 0.00000, 22: 0.00000, 21: 0.00000, 20: 0.00000, 19: 0.00000, 18: 0.00000, 17: 0.00000, 16: 0.00000, 15: 0.00000,
                14: 0.00000, 13: 0.00000, 12: 0.00000, 11: 0.00000, 10: 0.00000,  9: 0.00000,  8: 0.00000,  7: 0.00000,  6: 0.00000,
                 5: 0.00000,  4: 0.00000,  3: 0.00000,  2: 0.00000,  1: 0.00000
    45 |      | 32: 0.00000, 31: 0.00000, 30: 0.00000, 29: 0.00000, 28: 0.00000, 27: 0.00000, 26: 0.00000, 25: 0.00000, 24: 0.00000,
                23: 0.00000, 22: 0.00000, 21: 0.00000, 20: 0.00000, 19: 0.00000, 18: 0.00000, 17: 0.00000, 16: 0.00000, 15: 0.00000,
                14: 0.00000, 13: 0.00000, 12: 0.00000, 11: 0.00000, 10: 0.00000,  9: 0.00000,  8: 0.00000,  7: 0.00000,  6: 0.00000,
                 5: 0.00000,  4: 0.00000,  3: 0.00000,  2: 0.00000,  1: 0.00000
    46 |      | 32: 0.00000, 31: 0.00000, 30: 0.00000, 29: 0.00000, 28: 0.00000, 27: 0.00000, 26: 0.00000, 25: 0.00000, 24: 0.00000,
                23: 0.00000, 22: 0.00000, 21: 0.00000, 20: 0.00000, 19: 0.00000, 18: 0.00000, 17: 0.00000, 16: 0.00000, 15: 0.00000,
                14: 0.00000, 13: 0.00000, 12: 0.00000, 11: 0.00000, 10: 0.00000,  9: 0.00000,  8: 0.00000,  7: 0.00000,  6: 0.00000,
                 5: 0.00000,  4: 0.00000,  3: 0.00000,  2: 0.00000,  1: 0.00000
    47 |      | 32: 0.00000, 31: 0.00000, 30: 0.00000, 29: 0.00000, 28: 0.00000, 27: 0.00000, 26: 0.00000, 25: 0.00000, 24: 0.00000,
                23: 0.00000, 22: 0.00000, 21: 0.00000, 20: 0.00000, 19: 0.00000, 18: 0.00000, 17: 0.00000, 16: 0.00000, 15: 0.00000,
                14: 0.00000, 13: 0.00000, 12: 0.00000, 11: 0.00000, 10: 0.00000,  9: 0.00000,  8: 0.00000,  7: 0.00000,  6: 0.00000,
                 5: 0.00000,  4: 0.00000,  3: 0.00000,  2: 0.00000,  1: 0.00000
    48 |      | 32: 0.00000, 31: 0.00000, 30: 0.00000, 29: 0.00000, 28: 0.00000, 27: 0.00000, 26: 0.00000, 25: 0.00000, 24: 0.00000,
                23: 0.00000, 22: 0.00000, 21: 0.00000, 20: 0.00000, 19: 0.00000, 18: 0.00000, 17: 0.00000, 16: 0.00000, 15: 0.00000,
                14: 0.00000, 13: 0.00000, 12: 0.00000, 11: 0.00000, 10: 0.00000,  9: 0.00000,  8: 0.00000,  7: 0.00000,  6: 0.00000,
                 5: 0.00000,  4: 0.00000,  3: 0.00000,  2: 0.00000,  1: 0.00000
-------|------|---------------------------------------------------------------------------------------------------------------------


layer definition section :

layer | unitNo.
------|----------------------------------------------------------------------------------------------------------------------------
    2 | 17, 18, 19, 20, 21, 22, 23, 24, 25, 26, 27, 28, 29, 30, 31, 32
    3 | 33, 34, 35, 36, 37, 38, 39, 40, 41, 42, 43, 44, 45, 46, 47, 48
------|----------------------------------------------------------------------------------------------------------------------------
