SNNS network definition file V1.4-3D
generated at Wed Oct 24 15:05:22 2007

network name : rede_4_16_10
source files :
no. of units : 30
no. of connections : 264
no. of unit types : 0
no. of site types : 0


learning function : Std_Backpropagation
update function   : Topological_Order


unit default section :

act      | bias     | st | subnet | layer | act func     | out func
---------|----------|----|--------|-------|--------------|-------------
 0.00000 |  0.00000 | h  |      0 |     1 | Act_Logistic | Out_Identity 
---------|----------|----|--------|-------|--------------|-------------


unit definition section :

no. | typeName | unitName | act      | bias     | st | position | act func             | out func | sites
----|----------|----------|----------|----------|----|----------|----------------------|----------|-------
  1 |          | noName   |  0.00000 |  0.00000 | i  |  1, 3, 1 |||
  2 |          | noName   |  0.00000 |  0.00000 | i  |  1, 4, 1 |||
  3 |          | noName   |  0.00000 |  0.00000 | i  |  1, 5, 1 |||
  4 |          | noName   |  0.00000 |  0.00000 | i  |  1, 6, 1 |||
  5 |          | noName   |  0.00000 |  0.00000 | h  |  4, 0, 1 |||
  6 |          | noName   |  0.00000 |  0.00000 | h  |  4, 1, 1 |||
  7 |          | noName   |  0.00000 |  0.00000 | h  |  4, 2, 1 |||
  8 |          | noName   |  0.00000 |  0.00000 | h  |  4, 3, 1 |||
  9 |          | noName   |  0.00000 |  0.00000 | h  |  4, 4, 1 |||
 10 |          | noName   |  0.00000 |  0.00000 | h  |  4, 5, 1 |||
 11 |          | noName   |  0.00000 |  0.00000 | h  |  4, 6, 1 |||
 12 |          | noName   |  0.00000 |  0.00000 | h  |  4, 7, 1 |||
 13 |          | noName   |  0.00000 |  0.00000 | h  |  4, 8, 1 |||
 14 |          | noName   |  0.00000 |  0.00000 | h  |  4, 9, 1 |||
 15 |          | noName   |  0.00000 |  0.00000 | h  |  4,10, 1 |||
 16 |          | noName   |  0.00000 |  0.00000 | h  |  4,11, 1 |||
 17 |          | noName   |  0.00000 |  0.00000 | h  |  4,12, 1 |||
 18 |          | noName   |  0.00000 |  0.00000 | h  |  4,13, 1 |||
 19 |          | noName   |  0.00000 |  0.00000 | h  |  4,14, 1 |||
 20 |          | noName   |  0.00000 |  0.00000 | h  |  4,15, 1 |||
 21 |          | noName   |  0.00000 |  0.00000 | o  |  7, 1, 1 | Act_IdentityPlusBias |          | 
 22 |          | noName   |  0.00000 |  0.00000 | o  |  7, 2, 1 | Act_IdentityPlusBias |          | 
 23 |          | noName   |  0.00000 |  0.00000 | o  |  7, 3, 1 | Act_IdentityPlusBias |          | 
 24 |          | noName   |  0.00000 |  0.00000 | o  |  7, 4, 1 | Act_IdentityPlusBias |          | 
 25 |          | noName   |  0.00000 |  0.00000 | o  |  7, 5, 1 | Act_IdentityPlusBias |          | 
 26 |          | noName   |  0.00000 |  0.00000 | o  |  7, 6, 1 | Act_IdentityPlusBias |          | 
 27 |          | noName   |  0.00000 |  0.00000 | o  |  7, 7, 1 | Act_IdentityPlusBias |          | 
 28 |          | noName   |  0.00000 |  0.00000 | o  |  7, 8, 1 | Act_IdentityPlusBias |          | 
 29 |          | noName   |  0.00000 |  0.00000 | o  |  7, 9, 1 | Act_IdentityPlusBias |          | 
 30 |          | noName   |  0.00000 |  0.00000 | o  |  7,10, 1 | Act_IdentityPlusBias |          | 
----|----------|----------|----------|----------|----|----------|----------------------|----------|-------


connection definition section :

target | site | source:weight
-------|------|---------------------------------------------------------------------------------------------------------------------
     5 |      |  4: 0.00000,  3: 0.00000,  2: 0.00000,  1: 0.00000
     6 |      |  4: 0.00000,  3: 0.00000,  2: 0.00000,  1: 0.00000
     7 |      |  4: 0.00000,  3: 0.00000,  2: 0.00000,  1: 0.00000
     8 |      |  4: 0.00000,  3: 0.00000,  2: 0.00000,  1: 0.00000
     9 |      |  4: 0.00000,  3: 0.00000,  2: 0.00000,  1: 0.00000
    10 |      |  4: 0.00000,  3: 0.00000,  2: 0.00000,  1: 0.00000
    11 |      |  4: 0.00000,  3: 0.00000,  2: 0.00000,  1: 0.00000
    12 |      |  4: 0.00000,  3: 0.00000,  2: 0.00000,  1: 0.00000
    13 |      |  4: 0.00000,  3: 0.00000,  2: 0.00000,  1: 0.00000
    14 |      |  4: 0.00000,  3: 0.00000,  2: 0.00000,  1: 0.00000
    15 |      |  4: 0.00000,  3: 0.00000,  2: 0.00000,  1: 0.00000
    16 |      |  4: 0.00000,  3: 0.00000,  2: 0.00000,  1: 0.00000
    17 |      |  4: 0.00000,  3: 0.00000,  2: 0.00000,  1: 0.00000
    18 |      |  4: 0.00000,  3: 0.00000,  2: 0.00000,  1: 0.00000
    19 |      |  4: 0.00000,  3: 0.00000,  2: 0.00000,  1: 0.00000
    20 |      |  4: 0.00000,  3: 0.00000,  2: 0.00000,  1: 0.00000
    21 |      | 20: 0.00000, 19: 0.00000, 18: 0.00000, 17: 0.00000, 16: 0.00000, 15: 0.00000, 14: 0.00000, 13: 0.00000, 12: 0.00000,
                11: 0.00000, 10: 0.00000,  9: 0.00000,  8: 0.00000,  7: 0.00000,  6: 0.00000,  5: 0.00000,  4: 0.00000,  3: 0.00000,
                 2: 0.00000,  1: 0.00000
    22 |      | 20: 0.00000, 19: 0.00000, 18: 0.00000, 17: 0.00000, 16: 0.00000, 15: 0.00000, 14: 0.00000, 13: 0.00000, 12: 0.00000,
                11: 0.00000, 10: 0.00000,  9: 0.00000,  8: 0.00000,  7: 0.00000,  6: 0.00000,  5: 0.00000,  4: 0.00000,  3: 0.00000,
                 2: 0.00000,  1: 0.00000
    23 |      | 20: 0.00000, 19: 0.00000, 18: 0.00000, 17: 0.00000, 16: 0.00000, 15: 0.00000, 14: 0.00000, 13: 0.00000, 12: 0.00000,
                11: 0.00000, 10: 0.00000,  9: 0.00000,  8: 0.00000,  7: 0.00000,  6: 0.00000,  5: 0.00000,  4: 0.00000,  3: 0.00000,
                 2: 0.00000,  1: 0.00000
    24 |      | 20: 0.00000, 19: 0.00000, 18: 0.00000, 17: 0.00000, 16: 0.00000, 15: 0.00000, 14: 0.00000, 13: 0.00000, 12: 0.00000,
                11: 0.00000, 10: 0.00000,  9: 0.00000,  8: 0.00000,  7: 0.00000,  6: 0.00000,  5: 0.00000,  4: 0.00000,  3: 0.00000,
                 2: 0.00000,  1: 0.00000
    25 |      | 20: 0.00000, 19: 0.00000, 18: 0.00000, 17: 0.00000, 16: 0.00000, 15: 0.00000, 14: 0.00000, 13: 0.00000, 12: 0.00000,
                11: 0.00000, 10: 0.00000,  9: 0.00000,  8: 0.00000,  7: 0.00000,  6: 0.00000,  5: 0.00000,  4: 0.00000,  3: 0.00000,
                 2: 0.00000,  1: 0.00000
    26 |      | 20: 0.00000, 19: 0.00000, 18: 0.00000, 17: 0.00000, 16: 0.00000, 15: 0.00000, 14: 0.00000, 13: 0.00000, 12: 0.00000,
                11: 0.00000, 10: 0.00000,  9: 0.00000,  8: 0.00000,  7: 0.00000,  6: 0.00000,  5: 0.00000,  4: 0.00000,  3: 0.00000,
                 2: 0.00000,  1: 0.00000
    27 |      | 20: 0.00000, 19: 0.00000, 18: 0.00000, 17: 0.00000, 16: 0.00000, 15: 0.00000, 14: 0.00000, 13: 0.00000, 12: 0.00000,
                11: 0.00000, 10: 0.00000,  9: 0.00000,  8: 0.00000,  7: 0.00000,  6: 0.00000,  5: 0.00000,  4: 0.00000,  3: 0.00000,
                 2: 0.00000,  1: 0.00000
    28 |      | 20: 0.00000, 19: 0.00000, 18: 0.00000, 17: 0.00000, 16: 0.00000, 15: 0.00000, 14: 0.00000, 13: 0.00000, 12: 0.00000,
                11: 0.00000, 10: 0.00000,  9: 0.00000,  8: 0.00000,  7: 0.00000,  6: 0.00000,  5: 0.00000,  4: 0.00000,  3: 0.00000,
                 2: 0.00000,  1: 0.00000
    29 |      | 20: 0.00000, 19: 0.00000, 18: 0.00000, 17: 0.00000, 16: 0.00000, 15: 0.00000, 14: 0.00000, 13: 0.00000, 12: 0.00000,
                11: 0.00000, 10: 0.00000,  9: 0.00000,  8: 0.00000,  7: 0.00000,  6: 0.00000,  5: 0.00000,  4: 0.00000,  3: 0.00000,
                 2: 0.00000,  1: 0.00000
    30 |      | 20: 0.00000, 19: 0.00000, 18: 0.00000, 17: 0.00000, 16: 0.00000, 15: 0.00000, 14: 0.00000, 13: 0.00000, 12: 0.00000,
                11: 0.00000, 10: 0.00000,  9: 0.00000,  8: 0.00000,  7: 0.00000,  6: 0.00000,  5: 0.00000,  4: 0.00000,  3: 0.00000,
                 2: 0.00000,  1: 0.00000
-------|------|---------------------------------------------------------------------------------------------------------------------


layer definition section :

layer | unitNo.
------|----------------------------------------------------------------------------------------------------------------------------
    2 |  5,  6,  7,  8,  9, 10, 11, 12, 13, 14, 15, 16, 17, 18, 19, 20
    3 | 21, 22, 23, 24, 25, 26, 27, 28, 29, 30
------|----------------------------------------------------------------------------------------------------------------------------
